{
    "layer": 0,
    "activation": "tanh",
    "weightShape": [
        50,
        100
    ],
    "weightVals": [
        [
            -0.00017315702280029655,
            0.00967036560177803,
            -0.3427938222885132,
            0.0015883774030953646,
            0.019196564331650734,
            -0.0002230209793196991,
            -0.0104396166279912,
            -0.0033338789362460375,
            0.03740130737423897,
            -0.006241522263735533,
            -0.3063611686229706,
            -0.014931973069906235,
            0.006754654925316572,
            0.004343330394476652,
            0.005933217704296112,
            0.015736935660243034,
            0.004514528438448906,
            -0.023964503780007362,
            -0.4108823239803314,
            -0.11428016424179077,
            -0.00017283906345255673,
            -0.009065880440175533,
            0.13719281554222107,
            0.004221272189170122,
            0.0019189120503142476,
            -0.16610951721668243,
            0.30520278215408325,
            -0.007984193973243237,
            -0.01105570886284113,
            0.012805362232029438,
            -0.0014767409302294254,
            -0.0019119979115203023,
            -0.14416028559207916,
            0.00025825505144894123,
            0.0030600186437368393,
            0.10197330266237259,
            0.0010721622966229916,
            0.012670837342739105,
            -0.5795434713363647,
            0.00022790583898313344,
            0.006939745508134365,
            -0.012180502526462078,
            -0.0003537398297339678,
            0.00377490627579391,
            0.02970070019364357,
            0.003812746610492468,
            -0.004061713814735413,
            0.0028398416470736265,
            0.012440379709005356,
            -0.00020354332809802145,
            0.11850658059120178,
            -0.01357624214142561,
            3.09241222566925e-05,
            -0.00026648250059224665,
            -0.026782670989632607,
            -7.678890688112006e-05,
            -0.0011827066773548722,
            -0.012085306458175182,
            -0.003195784753188491,
            -0.00022324059682432562,
            -0.0004544365801848471,
            0.1974247395992279,
            0.06695662438869476,
            -0.000246859883191064,
            -0.00018397833628114313,
            -0.03941095620393753,
            -0.09252215176820755,
            0.025266723707318306,
            0.3517860472202301,
            0.004189725965261459,
            0.002002398483455181,
            0.00022426611394621432,
            -0.012886926531791687,
            0.007539217825978994,
            -0.06353646516799927,
            0.0701899603009224,
            0.007739352062344551,
            0.00017592728545423597,
            -0.0062751672230660915,
            -0.01144712045788765,
            0.1422850787639618,
            -0.08705353736877441,
            0.009333479218184948,
            -0.25719913840293884,
            0.00020577841496560723,
            -0.01091765146702528,
            -0.002611765870824456,
            0.003911128267645836,
            0.3395589292049408,
            0.00018329833983443677,
            0.03363507241010666,
            0.008297779597342014,
            -0.0002644672349561006,
            -0.010768868960440159,
            -0.0026986273005604744,
            -0.0001652541250223294,
            0.0022122152149677277,
            -0.006982043385505676,
            -0.18297727406024933,
            0.01034614723175764
        ],
        [
            0.006904277950525284,
            0.012605956755578518,
            0.041675668209791183,
            -0.0009757600491866469,
            0.026794547215104103,
            0.005413530860096216,
            0.0018054957035928965,
            -0.0038536370266228914,
            -0.03971405327320099,
            0.02815839648246765,
            -0.0607939288020134,
            0.0046776351518929005,
            0.0034495084546506405,
            -0.0059492578729987144,
            0.04605400934815407,
            -0.0031712378840893507,
            -0.00559838954359293,
            0.007711165118962526,
            -0.07794611901044846,
            0.020971855148673058,
            -0.006078242789953947,
            0.005266845691949129,
            -0.16389206051826477,
            0.0002946149616036564,
            -0.0014427717542275786,
            0.021784907206892967,
            -0.18649090826511383,
            -0.0020976741798222065,
            -0.1691073626279831,
            -0.006290305405855179,
            0.015492783859372139,
            0.025181865319609642,
            0.10873737931251526,
            -0.006039000581949949,
            0.0018937770510092378,
            0.02441367506980896,
            -0.003884568577632308,
            -0.0045682406052947044,
            -0.35443076491355896,
            0.006313268560916185,
            0.01790478266775608,
            2.088081237161532e-05,
            -0.00012272356252651662,
            -0.00616036169230938,
            -0.006321946624666452,
            0.0022291287314146757,
            0.0016000113682821393,
            0.03709631413221359,
            -0.0034168872516602278,
            0.0069245281629264355,
            0.06801293045282364,
            0.001743044820614159,
            0.0038755072746425867,
            0.006390044931322336,
            0.40939217805862427,
            -0.004051069263368845,
            0.0063784741796553135,
            0.002535666339099407,
            0.0004975751508027315,
            -0.005228589288890362,
            0.033099472522735596,
            -0.10617417842149734,
            -0.03834644705057144,
            -0.003937280271202326,
            0.0060715386644005775,
            0.06571664661169052,
            0.4626954197883606,
            -0.007619406096637249,
            -0.2698782682418823,
            -0.0013499519554898143,
            0.02963114343583584,
            0.004221560433506966,
            -0.0007209352916106582,
            0.040679026395082474,
            -0.11136491596698761,
            -0.24217021465301514,
            -0.005072006955742836,
            -0.00473468704149127,
            0.004514208063483238,
            0.004483023192733526,
            -0.030773606151342392,
            -0.2760096788406372,
            0.04342292249202728,
            -0.23268693685531616,
            -0.005172805394977331,
            -0.0033104438334703445,
            0.003836709540337324,
            -0.0013737054541707039,
            -0.13476650416851044,
            -0.006564518436789513,
            -0.0076749916188418865,
            -0.003179394407197833,
            0.006269378121942282,
            -0.0010083469096571207,
            -0.0014034502673894167,
            0.006871691904962063,
            0.0003583934158086777,
            5.891562614124268e-05,
            -0.002210198901593685,
            -0.02362029068171978
        ],
        [
            -0.0003473847755230963,
            0.01367916539311409,
            -0.21129146218299866,
            0.0007609973545186222,
            0.08080530166625977,
            -1.4618051409343025e-06,
            -0.001171229756437242,
            -0.0002491776249371469,
            -0.015644870698451996,
            -0.02156027778983116,
            -0.06759198009967804,
            -0.002813332946971059,
            0.00020172938820905983,
            0.0010471001733094454,
            -0.027750752866268158,
            0.0018377272645011544,
            0.0009792855707928538,
            -0.0036981164012104273,
            -0.16518788039684296,
            -0.0202046986669302,
            0.0003261235833633691,
            -0.0018860767595469952,
            -0.056216269731521606,
            -0.00025460022152401507,
            0.0008836513734422624,
            -0.17649969458580017,
            0.3667018413543701,
            0.00032089409069158137,
            -0.18252256512641907,
            0.0030158977024257183,
            -0.021523568779230118,
            -0.01586645469069481,
            0.07075513899326324,
            1.6390875316574238e-05,
            0.0004078762140125036,
            -0.06866548210382462,
            0.0009521706961095333,
            0.0023049984592944384,
            -0.09852971136569977,
            -0.0005372142768464983,
            -0.004127392545342445,
            -0.0006403324077837169,
            -0.0008317632600665092,
            0.0014276064466685057,
            0.004755704663693905,
            -0.000728010549210012,
            -0.0007648365572094917,
            -0.020711295306682587,
            0.0019335717661306262,
            -0.0002802809467539191,
            0.14374037086963654,
            -0.0015969646628946066,
            -0.001095168641768396,
            -5.757002145401202e-05,
            -0.0917966291308403,
            0.0010888456599786878,
            -0.001052185078151524,
            -0.0019044424407184124,
            -0.0005082456627860665,
            0.0008384718676097691,
            -0.013329271227121353,
            0.20965944230556488,
            -0.05318847671151161,
            0.0010659833205863833,
            -0.0007448604446835816,
            0.14357581734657288,
            0.12461218982934952,
            0.0044022537767887115,
            0.012033997103571892,
            0.001074542524293065,
            -0.012231668457388878,
            -0.0010388169903308153,
            -0.0006668351124972105,
            -0.023606397211551666,
            -0.35357367992401123,
            -0.17980045080184937,
            0.0013447506353259087,
            1.359727048111381e-05,
            -0.0010410628747195005,
            -0.002784338314086199,
            0.23924489319324493,
            -0.04866563528776169,
            -0.023537294939160347,
            0.05958369001746178,
            4.248690856911708e-06,
            -0.0008105886518023908,
            -0.0007760426960885525,
            0.0006294487975537777,
            0.035615041851997375,
            9.476461127633229e-05,
            0.1399516463279724,
            0.001165943336673081,
            -2.9642384106409736e-05,
            -0.00026851819711737335,
            -0.000567224808037281,
            -0.00035192802897654474,
            0.0006438406417146325,
            -0.0008245643111877143,
            -0.07596566528081894,
            0.025394676253199577
        ],
        [
            0.00030740490183234215,
            0.044244617223739624,
            0.040264975279569626,
            -0.0015233897138386965,
            0.019292863085865974,
            0.00038983122794888914,
            0.0029139225371181965,
            0.00019826105562970042,
            -0.054642513394355774,
            0.09574152529239655,
            -0.08742863684892654,
            0.0025991443544626236,
            -0.002794798696413636,
            2.1748475774074905e-05,
            0.06278189271688461,
            -0.00494797807186842,
            -8.281804184662178e-05,
            0.005199969280511141,
            -0.08730212599039078,
            0.009721561335027218,
            -0.00021001424465794116,
            0.001373823150061071,
            -0.011472298763692379,
            -0.002353119198232889,
            -0.0014507343294098973,
            0.06328972429037094,
            0.10135074704885483,
            0.004179421346634626,
            -0.3202873468399048,
            -0.0014755408046767116,
            0.005672176834195852,
            0.017982227727770805,
            0.07564963400363922,
            -0.00040705216815695167,
            -0.0023412941955029964,
            0.23470012843608856,
            -0.0007531038136221468,
            -0.002274339785799384,
            0.049861688166856766,
            0.0002229455712949857,
            0.010249054990708828,
            0.004386736545711756,
            -0.00025174152688123286,
            0.00015767262084409595,
            -0.005499518476426601,
            -0.002310633659362793,
            0.0005925550358369946,
            0.07298889011144638,
            -0.0022979052737355232,
            0.000325972301652655,
            -0.18152444064617157,
            0.003373583545908332,
            0.0006040679290890694,
            0.00040760563570074737,
            0.027629371732473373,
            -0.000592322729062289,
            -0.0005750247510150075,
            0.0023129309993237257,
            0.0012281339149922132,
            -0.000360565580194816,
            0.047141555696725845,
            -0.01354734506458044,
            -0.08541598916053772,
            -0.0005433500045910478,
            -8.93666292540729e-05,
            0.03935853764414787,
            0.3347412049770355,
            -0.004143968224525452,
            -0.2834428548812866,
            -0.0001853146095527336,
            0.02757231891155243,
            0.000521511014085263,
            0.004562034271657467,
            0.09011269360780716,
            0.1350042074918747,
            -0.16037338972091675,
            -0.0007737790001556277,
            -0.00035582290729507804,
            0.0006219015340320766,
            0.000849832606036216,
            -0.21923336386680603,
            -0.08386144042015076,
            0.09124850481748581,
            -0.3948526680469513,
            -0.0003780794213525951,
            0.003206984605640173,
            0.00045005526044405997,
            -0.0010751178488135338,
            -0.04666291922330856,
            -0.00037283796700648963,
            0.09026642143726349,
            -0.0013515566242858768,
            0.0004081521474290639,
            0.004150234628468752,
            0.002337732585147023,
            0.00030430787592194974,
            -0.0020488041918724775,
            0.001702290028333664,
            0.023457378149032593,
            -0.10418716073036194
        ],
        [
            0.0007806797511875629,
            -0.01101155299693346,
            -0.13170890510082245,
            0.002521216170862317,
            0.2977733314037323,
            0.0010503159137442708,
            -0.006453867070376873,
            -0.0010990722803398967,
            -0.033089954406023026,
            0.02019006386399269,
            -0.09948914498090744,
            -0.009976240806281567,
            0.004603348206728697,
            0.002503890311345458,
            0.020158741623163223,
            0.010726523585617542,
            0.0026417213957756758,
            -0.01685396209359169,
            -0.03801620006561279,
            -0.07248815894126892,
            -0.0005383975221775472,
            -0.0055810934863984585,
            -0.3171778619289398,
            0.00289824022911489,
            0.0027580689638853073,
            -0.13088573515415192,
            0.42369499802589417,
            -0.0034408792853355408,
            -0.09061382710933685,
            0.008127468638122082,
            0.0023997207172214985,
            0.011465857736766338,
            0.12236777693033218,
            -0.0011631997767835855,
            0.0033645809162408113,
            0.25323304533958435,
            0.0017240565503016114,
            0.008273866958916187,
            0.0429018959403038,
            0.0003413232625462115,
            0.011712045408785343,
            -0.007626665290445089,
            -0.0012403117725625634,
            0.0028397361747920513,
            0.019231708720326424,
            0.0017271783435717225,
            -0.0027719794306904078,
            0.019051840528845787,
            0.007837332785129547,
            0.0009405347518622875,
            0.14625957608222961,
            -0.00849116314202547,
            -0.0015712083550170064,
            0.0011890082387253642,
            0.08800524473190308,
            0.0015005830209702253,
            -0.0011045524151995778,
            -0.007767105009406805,
            -0.002963890554383397,
            0.0006639178609475493,
            0.019385918974876404,
            0.0538177490234375,
            -0.08600818365812302,
            0.0014006546698510647,
            -0.00144571578130126,
            0.3382492959499359,
            0.1725439727306366,
            0.01617702841758728,
            -0.3044765591621399,
            0.003187165828421712,
            0.015087135136127472,
            -0.0012698883656412363,
            -0.007678446359932423,
            0.018578069284558296,
            -0.3473536968231201,
            0.1158580631017685,
            0.004548960365355015,
            -0.0008971713832579553,
            -0.0036157851573079824,
            -0.007111070211976767,
            0.2538517415523529,
            0.039166100323200226,
            0.01873631775379181,
            0.40562719106674194,
            -0.000995176495052874,
            -0.007244161795824766,
            -0.0025952281430363655,
            0.003231363371014595,
            0.17075946927070618,
            -0.0012292568571865559,
            0.1360980123281479,
            0.005069324746727943,
            0.0012033944949507713,
            -0.0065414258278906345,
            -0.0033412480261176825,
            0.0007671407656744123,
            0.0029553540516644716,
            -0.00410323916003108,
            -0.31577083468437195,
            -0.020418202504515648
        ],
        [
            -0.0005160236032679677,
            0.026232419535517693,
            0.13079634308815002,
            0.0005790825234726071,
            0.019174249842762947,
            -0.0002753674052655697,
            0.0032604187726974487,
            0.0014484899584203959,
            -0.04256127402186394,
            -0.0038594359066337347,
            -0.2544076442718506,
            0.0026733102276921272,
            -0.0026005369145423174,
            9.155178122455254e-05,
            -0.004554070997983217,
            -0.004199256654828787,
            -8.109945156320464e-06,
            0.0044038002379238605,
            -0.16608798503875732,
            0.01572069711983204,
            0.0006065695779398084,
            0.0019136450719088316,
            -0.040063295513391495,
            -0.0014050931204110384,
            0.0005672724219039083,
            -0.04190891236066818,
            -0.09562505781650543,
            0.0024688823614269495,
            -0.06756946444511414,
            -0.0019464998040348291,
            0.0005702293128706515,
            0.007145545445382595,
            0.037335511296987534,
            0.00030501317814923823,
            2.1529995137825608e-05,
            0.06565365940332413,
            0.0007204618887044489,
            -0.002462844830006361,
            -0.07415337860584259,
            -0.0007040007621981204,
            0.0065446170046925545,
            0.00408198544755578,
            0.0006348774186335504,
            0.00024314515758305788,
            -0.006503796670585871,
            -0.0021988824009895325,
            0.000737425172701478,
            -0.001987881725654006,
            -0.002554564969614148,
            -0.0004664404841605574,
            -0.4937354028224945,
            0.003697889158502221,
            -0.001080531277693808,
            -0.00032810779521241784,
            0.3003402352333069,
            0.0010887986281886697,
            -0.000880690582562238,
            0.002708237385377288,
            3.597090471885167e-05,
            0.0009153163409791887,
            0.007680971175432205,
            -0.08803143352270126,
            -0.10990894585847855,
            0.0010989283910021186,
            -0.0009167566313408315,
            -0.0827133059501648,
            0.21108859777450562,
            -0.005285848397761583,
            -0.1191442608833313,
            -6.426025356631726e-05,
            0.00950454082340002,
            -0.0010498696938157082,
            0.00453976821154356,
            -0.008783920668065548,
            0.06989455968141556,
            -0.17844243347644806,
            -0.0007978116045705974,
            0.00024169815878849477,
            0.0005449871532619,
            0.0006944615161046386,
            -0.060878314077854156,
            0.09735222160816193,
            -0.007902939803898335,
            -0.16429266333580017,
            0.0002641721221152693,
            0.0030454855877906084,
            -0.0001790863461792469,
            -0.0001652425416978076,
            -0.06155523285269737,
            0.0003560877521522343,
            -0.0272553451359272,
            -0.001134664984419942,
            -0.0003146041708532721,
            0.003823361126706004,
            -0.0002412255562376231,
            -0.0005183615139685571,
            0.00036588479997590184,
            0.0022738066036254168,
            0.0049248188734054565,
            0.007767819799482822
        ],
        [
            -0.0019328955095261335,
            -0.018419576808810234,
            -0.046672020107507706,
            0.0008263408089987934,
            -0.05001291632652283,
            -0.0016693794168531895,
            -5.0678390834946185e-05,
            0.001545969513244927,
            0.019914183765649796,
            -0.00634805066511035,
            0.15512117743492126,
            -0.0029974968638271093,
            -0.0019447153899818659,
            0.003198683727532625,
            -0.0017839373322203755,
            0.0009364219731651247,
            0.0030266204848885536,
            -0.004367460496723652,
            -0.24774986505508423,
            -0.013660820201039314,
            0.0016986108385026455,
            -0.0022032936103641987,
            -0.17031329870224,
            -0.00048316456377506256,
            0.000982865341939032,
            -0.11149454861879349,
            0.3405981659889221,
            0.0007822091574780643,
            -0.041207533329725266,
            0.0035108060110360384,
            0.022733308374881744,
            0.01829744316637516,
            0.07466692477464676,
            0.0018278219504281878,
            8.918310413719155e-06,
            0.0783689022064209,
            0.0013955289032310247,
            0.0025067541282624006,
            -0.21910881996154785,
            -0.0016607650322839618,
            0.01030066329985857,
            0.0009673445601947606,
            0.0005480062100104988,
            0.003299158765003085,
            0.0033040018752217293,
            -0.002056459430605173,
            -0.0009380473638884723,
            -0.003735786536708474,
            0.002020566025748849,
            -0.00196421192958951,
            0.3417704701423645,
            -0.0005496478406712413,
            -0.0012341344263404608,
            -0.0019054383737966418,
            0.3008170425891876,
            0.0012580790789797902,
            -0.00326172704808414,
            -0.0013380693271756172,
            -0.0008235977729782462,
            0.0014170344220474362,
            0.008668795228004456,
            0.0667511597275734,
            0.017566513270139694,
            0.0012043481692671776,
            -0.0027792088221758604,
            0.17589612305164337,
            0.1859614998102188,
            0.003844727063551545,
            -0.16282424330711365,
            0.001775282435119152,
            0.013744153082370758,
            -0.001235762145370245,
            0.0015095502603799105,
            -0.011896621435880661,
            0.05220736563205719,
            0.25904011726379395,
            0.003081731963902712,
            0.0014864366967231035,
            -0.0027494272217154503,
            -0.003496793331578374,
            0.3295693099498749,
            0.09736038744449615,
            -0.012466326355934143,
            0.24528540670871735,
            0.0016053119907155633,
            0.0010475459275767207,
            -0.0021331736352294683,
            0.0012013922678306699,
            0.03772401809692383,
            0.00191883638035506,
            0.030434658750891685,
            0.002286213682964444,
            -0.0018821842968463898,
            0.0014138492988422513,
            -0.00023227569181472063,
            -0.0019219777313992381,
            0.000494066218379885,
            0.0004238557012286037,
            -0.018682604655623436,
            0.006672493647783995
        ],
        [
            -0.0008781696669757366,
            0.06344178318977356,
            -0.0784798339009285,
            -0.003857565810903907,
            -0.3002129793167114,
            -0.0007709889905527234,
            0.0068818312138319016,
            0.0033105090260505676,
            0.015105425380170345,
            -0.0560474656522274,
            0.012251385487616062,
            0.008089233189821243,
            -0.006998174358159304,
            -0.001344509539194405,
            -0.04232621565461159,
            -0.010872501879930496,
            -0.0017279412131756544,
            0.013084404170513153,
            -0.0736660584807396,
            0.046627193689346313,
            0.000886984053067863,
            0.0036504592280834913,
            -0.0068213618360459805,
            -0.004166279453784227,
            -0.0037408657371997833,
            0.05611936375498772,
            -0.2780628800392151,
            0.010564994066953659,
            0.04881071299314499,
            -0.0055357422679662704,
            -0.023731859400868416,
            -0.023096080869436264,
            -0.00822982657700777,
            0.0008923131972551346,
            -0.00603326503187418,
            0.29525279998779297,
            -0.0017434015171602368,
            -0.0065544238314032555,
            -0.07483602315187454,
            -0.0006799459224566817,
            -0.019482575356960297,
            0.009286281652748585,
            0.00017746101366356015,
            -7.99779299995862e-05,
            -0.016039878129959106,
            -0.004437245428562164,
            0.0018337577348574996,
            -0.044878676533699036,
            -0.0070201740600168705,
            -0.000930443755351007,
            -0.30091574788093567,
            0.008939608000218868,
            0.0009879666613414884,
            -0.0009415018139407039,
            0.15392914414405823,
            -0.000875839323271066,
            -0.0014778311597183347,
            0.0068393126130104065,
            0.004154869355261326,
            5.501949999597855e-06,
            -0.03473615646362305,
            -0.023975782096385956,
            -0.0036517749540507793,
            -0.0007913157460279763,
            -0.0023057570215314627,
            0.007784448564052582,
            -0.12424889206886292,
            -0.012498569674789906,
            0.07761606574058533,
            -0.0018392474157735705,
            -0.026165883988142014,
            0.0006424422608688474,
            0.009995897300541401,
            -0.05176438018679619,
            -0.19503147900104523,
            -0.19590193033218384,
            -0.0040410892106592655,
            0.0006440000724978745,
            0.003536669537425041,
            0.004806663375347853,
            0.06475083529949188,
            0.2416890412569046,
            -0.050953205674886703,
            0.0012110471725463867,
            0.0007267005275934935,
            0.009524141438305378,
            0.0005644347984343767,
            -0.004024840425699949,
            -0.04421525076031685,
            0.0009979057358577847,
            -0.0032471942249685526,
            -0.00565706891939044,
            -0.0009389488259330392,
            0.008698266930878162,
            0.005850260145962238,
            -0.0008684405474923551,
            -0.005111405160278082,
            0.004448943305760622,
            0.10844878107309341,
            0.060069452971220016
        ],
        [
            -0.0018187676323577762,
            -0.027302592992782593,
            -0.016715316101908684,
            -0.0002437692746752873,
            -0.41831833124160767,
            -0.001530735637061298,
            0.006386381108313799,
            0.003407703945413232,
            0.1373804807662964,
            0.011900253593921661,
            0.39856189489364624,
            0.005130593199282885,
            -0.006510209757834673,
            0.00080843735486269,
            0.02856571599841118,
            -0.00875937845557928,
            0.00040620224899612367,
            0.009409714490175247,
            -0.25388115644454956,
            0.05084836483001709,
            0.0017424117540940642,
            0.0027247786056250334,
            -0.12985828518867493,
            -0.0035920115187764168,
            -0.00025291446945630014,
            0.09132400900125504,
            0.10301248729228973,
            0.005986582953482866,
            -0.10690667480230331,
            -0.003007146529853344,
            0.053691938519477844,
            0.032930199056863785,
            0.08748497068881989,
            0.0016741479048505425,
            -0.0018962464528158307,
            -0.01697799749672413,
            0.0006960624014027417,
            -0.004516481421887875,
            0.07264946401119232,
            -0.001777213765308261,
            0.010382362641394138,
            0.008914588019251823,
            0.00022645742865279317,
            0.0016071271384134889,
            -0.013768312521278858,
            -0.005187035072594881,
            0.0012770664179697633,
            0.01704978570342064,
            -0.005250886548310518,
            -0.0018315205816179514,
            0.336287260055542,
            0.007551065180450678,
            -0.0013634155038744211,
            -0.0017474171472713351,
            -0.07496746629476547,
            0.001420771237462759,
            -0.0031062334310263395,
            0.005549880210310221,
            0.0014211665838956833,
            0.0015814707148820162,
            0.017983173951506615,
            -0.1117020919919014,
            0.05789198353886604,
            0.0014651318779215217,
            -0.0029515079222619534,
            0.09875709563493729,
            0.33927425742149353,
            -0.010252737440168858,
            -0.08819089829921722,
            -0.0001612106862012297,
            0.02134707383811474,
            -0.0014681315515190363,
            0.009792530909180641,
            0.015440947376191616,
            0.5051414966583252,
            -0.1247212290763855,
            -0.0014612524537369609,
            0.0013703610748052597,
            0.0010747361229732633,
            0.002184624085202813,
            0.35581791400909424,
            0.19588153064250946,
            0.015535538084805012,
            -0.17315413057804108,
            0.0014753490686416626,
            0.0079494034871459,
            -0.0007073708111420274,
            -0.0014879514928907156,
            -0.17899321019649506,
            0.0018037529662251472,
            -0.09886853396892548,
            -0.002879304112866521,
            -0.0017258751904591918,
            0.008589747361838818,
            0.0014110184274613857,
            -0.0018119761953130364,
            -0.0009507624199613929,
            0.00457471190020442,
            0.18673676252365112,
            -0.013160616159439087
        ],
        [
            0.002546780277043581,
            0.015203599818050861,
            -0.17032848298549652,
            -0.0022861058823764324,
            0.03549456596374512,
            0.0019174759509041905,
            0.002983017358928919,
            0.002930434886366129,
            -0.016454581171274185,
            -0.08172642439603806,
            -0.13052527606487274,
            0.003681736998260021,
            -0.00232234550639987,
            -0.003186502493917942,
            -0.056970883160829544,
            -0.0034068806562572718,
            -0.0033914162777364254,
            0.003151570213958621,
            -0.18026703596115112,
            0.009499658830463886,
            -0.0018852577777579427,
            0.0022462450433522463,
            -0.021326234564185143,
            -0.0007288074120879173,
            -0.0022547091357409954,
            0.06804928183555603,
            -0.1956126093864441,
            0.005852109286934137,
            0.10616544634103775,
            -0.003200314473360777,
            -0.028982581570744514,
            -0.0315539576113224,
            0.0013402419863268733,
            -0.0021562695037573576,
            -0.002600299194455147,
            0.10922793298959732,
            -0.00219543743878603,
            -0.003091116202995181,
            0.032411377876996994,
            0.002089777961373329,
            -0.019669093191623688,
            0.003046290948987007,
            -0.0015634290175512433,
            -0.0008386247209273279,
            -0.0064109815284609795,
            -0.0015394316287711263,
            0.0007453097496181726,
            -0.06661061197519302,
            -0.0035552578046917915,
            0.0025774589739739895,
            0.09089142829179764,
            0.003583548590540886,
            0.0011991047067567706,
            0.0023108981549739838,
            -0.04430258646607399,
            -0.0011579837882891297,
            0.0003203980450052768,
            0.0025616411585360765,
            0.002787304576486349,
            -0.0013592606410384178,
            -0.055048830807209015,
            -0.014999832957983017,
            0.017448101192712784,
            -0.0011201436864212155,
            -0.002405524719506502,
            0.033016666769981384,
            -0.2429114133119583,
            -0.005396654829382896,
            0.10915965586900711,
            -0.0007253535441122949,
            -0.03778725489974022,
            0.001147746224887669,
            0.0035328378435224295,
            -0.07338794320821762,
            0.031914159655570984,
            -0.1703246533870697,
            -0.0044091674499213696,
            -0.0016674315556883812,
            0.004254295025020838,
            0.0017383444355800748,
            -0.039498474448919296,
            -0.04491428658366203,
            -0.0729748010635376,
            0.046520013362169266,
            -0.0018247261177748442,
            0.0038312424439936876,
            -0.0002415985509287566,
            -0.0030454928055405617,
            -0.04978388175368309,
            -0.0024089389480650425,
            -0.012198681011795998,
            -0.004833442158997059,
            0.0022542926017194986,
            0.0028407347854226828,
            0.0024932511150836945,
            0.002535200212150812,
            -0.0025418188888579607,
            0.0019250649493187666,
            -0.019992809742689133,
            0.08603984862565994
        ],
        [
            -0.001350981998257339,
            -0.06745471805334091,
            0.1508745551109314,
            0.0018485283944755793,
            -0.30330556631088257,
            -0.0010757611598819494,
            -0.003094325540587306,
            -0.0005284043727442622,
            0.13949793577194214,
            0.014470947906374931,
            0.003136982675641775,
            -0.007199466228485107,
            3.343318167026155e-05,
            0.0036005573347210884,
            0.025870036333799362,
            0.005014221183955669,
            0.0034124895464628935,
            -0.00959349237382412,
            0.19092141091823578,
            -0.03620263189077377,
            0.0011170319048687816,
            -0.004908575676381588,
            0.06334014236927032,
            -0.00018666266987565905,
            0.0020613595843315125,
            0.13307876884937286,
            0.04710862785577774,
            -0.00260026752948761,
            -0.2072366178035736,
            0.0075539881363511086,
            0.06553403288125992,
            0.040527310222387314,
            -0.0002937062527053058,
            0.0011535270605236292,
            0.0012288131983950734,
            -0.10367704927921295,
            0.002101307502016425,
            0.006007414311170578,
            -0.006654832046478987,
            -0.0013615434290841222,
            0.020087478682398796,
            -0.0017996267415583134,
            -0.0006879566935822368,
            0.0038595632649958134,
            0.01117519848048687,
            -0.0013905599480494857,
            -0.0019384392071515322,
            0.014776277355849743,
            0.0052295830100774765,
            -0.0013216739753261209,
            0.14224746823310852,
            -0.004416496492922306,
            -0.001870083506219089,
            -0.0012059465516358614,
            0.12049632519483566,
            0.0018638705369085073,
            -0.0031051484402269125,
            -0.004857237450778484,
            -0.0013425865909084678,
            0.0015825525624677539,
            0.016003357246518135,
            -0.21389734745025635,
            0.024046439677476883,
            0.001779300277121365,
            -0.0017820149660110474,
            -0.12003764510154724,
            0.2433055341243744,
            0.010578327812254429,
            -0.043172068893909454,
            0.002734340028837323,
            0.025371214374899864,
            -0.0017618276178836823,
            -0.0018438375554978848,
            0.014340288005769253,
            0.2971648871898651,
            -0.04459768533706665,
            0.004447543993592262,
            0.0009891325607895851,
            -0.0036846897564828396,
            -0.00718711968511343,
            0.2667336165904999,
            0.1495363414287567,
            0.013629264198243618,
            0.004794526845216751,
            0.0010446971282362938,
            -0.001880460069514811,
            -0.0020488298032432795,
            0.0017378329066559672,
            0.038475289940834045,
            0.0012089151423424482,
            -0.027710020542144775,
            0.0038592524360865355,
            -0.0011801167856901884,
            -0.0008821217925287783,
            -0.0015897884732112288,
            -0.0013497432228177786,
            0.0017566682072356343,
            -0.0020391771104186773,
            -0.12731976807117462,
            -0.01852201297879219
        ],
        [
            -0.0006445382605306804,
            0.09831920266151428,
            -0.11467158049345016,
            -0.001977832056581974,
            0.04811161383986473,
            0.00012723759573418647,
            0.0029187139589339495,
            0.007470312993973494,
            0.09100376069545746,
            -0.138738751411438,
            -0.1862853616476059,
            0.0034202320966869593,
            -0.0034684007987380028,
            -0.0016982783563435078,
            -0.11757202446460724,
            -0.0017854543402791023,
            -0.0020018850918859243,
            -0.0014592712977901101,
            -0.09773426502943039,
            0.00401585316285491,
            0.0010606808355078101,
            0.0013155459892004728,
            -0.018470557406544685,
            0.0007641239790245891,
            -0.0017263198969885707,
            0.10908987373113632,
            -0.22700268030166626,
            0.012650609947741032,
            -0.007319361437112093,
            -0.0036615768913179636,
            -0.07403595745563507,
            -0.07159049063920975,
            -0.06096291542053223,
            1.1959768926317338e-06,
            -0.0026848933193832636,
            -0.11633516848087311,
            -0.0009046024642884731,
            -0.002435016445815563,
            0.13446345925331116,
            -0.000796334003098309,
            -0.04567699134349823,
            0.0019125964026898146,
            -0.0018054904649034142,
            0.0018810026813298464,
            -0.0056148492731153965,
            -0.0019265053560957313,
            0.0001434859586879611,
            -0.12037800997495651,
            -0.0037758084945380688,
            -0.0005352135049179196,
            0.29803788661956787,
            0.004139130003750324,
            -0.0008758355979807675,
            -8.568227349314839e-05,
            -0.0790935605764389,
            0.0010157646611332893,
            -0.0026685339398682117,
            0.0030463319271802902,
            0.0020591290667653084,
            0.001270010252483189,
            -0.10062757879495621,
            -0.07245510816574097,
            0.02659035101532936,
            0.0010166887659579515,
            -0.00795984547585249,
            0.029153861105442047,
            -0.06760634481906891,
            -0.004061115439981222,
            -0.15118929743766785,
            -0.0003953678533434868,
            -0.07672290503978729,
            -0.0010585230775177479,
            0.003707223106175661,
            -0.13142235577106476,
            -0.17461539804935455,
            0.002013314049690962,
            -0.004043562337756157,
            -0.00023399709607474506,
            0.003977224230766296,
            0.005170630291104317,
            0.23446889221668243,
            -0.021702056750655174,
            -0.12904493510723114,
            -0.02841133624315262,
            -0.00015923062164802104,
            0.006064653396606445,
            -0.0033649513497948647,
            -0.0021936327684670687,
            -0.07887376844882965,
            0.00014335094601847231,
            -0.010926803573966026,
            -0.00509216682985425,
            -5.555933603318408e-05,
            0.00205040629953146,
            0.002685688901692629,
            -0.0006327463197521865,
            -0.0027481268625706434,
            0.0031394504476338625,
            -0.001526715699583292,
            0.1462957113981247
        ],
        [
            -0.00047769752563908696,
            -0.021173419430851936,
            0.07190847396850586,
            -0.0009779627434909344,
            -0.1288360357284546,
            -0.0006301469984464347,
            -0.00014524839934892952,
            -0.0004412444250192493,
            0.04228993132710457,
            -0.011166291311383247,
            0.05181962996721268,
            -0.0019911136478185654,
            -0.0022569464053958654,
            0.0013436316512525082,
            -0.0085862185806036,
            -0.0005321362405084074,
            0.0010917827021330595,
            -0.0005738320760428905,
            -0.017540575936436653,
            -0.0032007128465920687,
            0.0002903715067077428,
            -0.002240474335849285,
            0.008145649917423725,
            -0.0019947076216340065,
            -0.0008418442448601127,
            0.17326077818870544,
            0.06315215677022934,
            0.0002578133135102689,
            -0.07838267832994461,
            0.0034244114067405462,
            0.028009869158267975,
            0.014235829934477806,
            0.09509127587080002,
            0.0006302737747319043,
            -0.0022985634859651327,
            -0.3663190007209778,
            -5.576001785811968e-05,
            0.0017644986510276794,
            0.17760860919952393,
            -0.0003672181337606162,
            0.006505586206912994,
            0.0019719263073056936,
            -0.0007017573225311935,
            0.0018811192130669951,
            0.002074368530884385,
            -0.0021298546344041824,
            -0.0005687220254912972,
            -0.013180232606828213,
            0.001176460413262248,
            -0.0005194171098992229,
            -0.26418715715408325,
            -0.00028742829454131424,
            0.00020098108507227153,
            -0.0006211136351339519,
            0.0229696873575449,
            -0.00016615151253063232,
            -0.0018541746539995074,
            -0.0011032246984541416,
            0.0013724109157919884,
            9.787993622012436e-05,
            -0.00504769803956151,
            0.029970906674861908,
            0.07269471138715744,
            -0.00017689194646663964,
            -0.0006567233940586448,
            0.14640609920024872,
            -0.20457465946674347,
            0.0029276018030941486,
            0.11527988314628601,
            0.0008110582712106407,
            0.005640711635351181,
            9.468317875871435e-05,
            0.0017759924521669745,
            -0.015088903717696667,
            -0.03626572713255882,
            0.09650515764951706,
            0.0012772667687386274,
            0.00061406334862113,
            -0.0009493671241216362,
            -0.0034274114295840263,
            0.17477114498615265,
            -0.329502671957016,
            -0.015456217341125011,
            -0.17078745365142822,
            0.0006240214570425451,
            0.0020360483322292566,
            -0.0002721856872085482,
            -0.0010003700153902173,
            -0.026024706661701202,
            0.0006163126672618091,
            -0.10522066801786423,
            0.00041514518670737743,
            -0.0006297820364125073,
            0.0023769326508045197,
            0.001987856812775135,
            -0.0004754778346978128,
            -0.0014757339376956224,
            -0.000397831347072497,
            0.0009019765420816839,
            0.008875392377376556
        ],
        [
            -0.0013680625706911087,
            0.12609030306339264,
            -0.07971304655075073,
            -0.0043344353325665,
            0.09161447733640671,
            -0.0007768317009322345,
            0.0071073975414037704,
            0.0058653331361711025,
            0.14123040437698364,
            -0.13252094388008118,
            -0.0074072848074138165,
            0.009223870933055878,
            -0.006879149004817009,
            -0.003354219486936927,
            -0.12105733901262283,
            -0.010527809150516987,
            -0.0038039253558963537,
            0.012821774929761887,
            0.01389278657734394,
            0.0499206967651844,
            0.0013990195002406836,
            0.004003232344985008,
            0.012422081083059311,
            -0.003917128778994083,
            -0.004138079471886158,
            -0.002953554969280958,
            0.05553668364882469,
            0.016064079478383064,
            -0.2662152945995331,
            -0.007142883259803057,
            -0.07868360728025436,
            -0.08078347891569138,
            -0.23777301609516144,
            0.0009110707906074822,
            -0.00737167289480567,
            0.18370714783668518,
            -0.0016188151203095913,
            -0.007179317530244589,
            0.4780980944633484,
            -0.0013775023398920894,
            -0.05750058963894844,
            0.009282664395868778,
            -0.0028602152597159147,
            -0.00036124433972872794,
            -0.01742762140929699,
            -0.004770056810230017,
            0.001993519486859441,
            -0.11893024295568466,
            -0.009087004698812962,
            -0.0013063056394457817,
            0.20798975229263306,
            0.01066882349550724,
            1.3472739738062955e-05,
            -0.0009948097867891192,
            0.19522282481193542,
            0.00016793380200397223,
            -0.0015006192261353135,
            0.008707025088369846,
            0.005655959248542786,
            0.0010302176233381033,
            -0.10659416764974594,
            -0.003887293627485633,
            0.0024501963052898645,
            0.0002612548996694386,
            -0.004946229048073292,
            -0.022281616926193237,
            -0.20209260284900665,
            -0.013599349185824394,
            0.0109714325517416,
            -0.0027814898639917374,
            -0.08880556374788284,
            -0.00045096961548551917,
            0.010260662995278835,
            -0.12761713564395905,
            0.17514218389987946,
            -0.29527586698532104,
            -0.006809362675994635,
            0.0006740763783454895,
            0.006204081233590841,
            0.010601960122585297,
            0.29164499044418335,
            0.35640886425971985,
            -0.12984976172447205,
            0.164291113615036,
            0.0007406442891806364,
            0.011648482643067837,
            -6.928869697730988e-05,
            -0.005692482925951481,
            -0.06904726475477219,
            0.0010805573547258973,
            0.00627535255625844,
            -0.008581580594182014,
            -0.0009699250804260373,
            0.008881769143044949,
            0.006909257732331753,
            -0.001358474139124155,
            -0.005961599759757519,
            0.004745751153677702,
            0.07567325979471207,
            0.1370454579591751
        ],
        [
            -0.002196948742493987,
            -0.05989427492022514,
            0.180154949426651,
            0.0008698022575117648,
            -0.19525693356990814,
            -0.0017817377811297774,
            -0.007425776682794094,
            -0.002261838410049677,
            -0.035893362015485764,
            -0.008902925997972488,
            -0.18301527202129364,
            -0.011434642598032951,
            0.0024098388385027647,
            0.004730430897325277,
            -0.033271849155426025,
            0.010358101688325405,
            0.004652037285268307,
            -0.016260869801044464,
            0.29996457695961,
            -0.07241681218147278,
            0.0016421203035861254,
            -0.008279292844235897,
            -0.04841672256588936,
            0.0011517317034304142,
            0.0012701371451839805,
            0.10689067840576172,
            0.21700279414653778,
            -0.004859792534261942,
            -0.031012745574116707,
            0.011430119164288044,
            0.014953269623219967,
            0.008988901972770691,
            0.09948891401290894,
            0.001986466348171234,
            0.00012348269228823483,
            -0.2567245364189148,
            0.0018995522987097502,
            0.00992447230964899,
            0.1194515973329544,
            -0.0018459279090166092,
            0.011451304890215397,
            -0.006570233963429928,
            -0.0011417040368542075,
            0.004531916696578264,
            0.02141531929373741,
            0.0008286212687380612,
            -0.003179471241310239,
            -0.02159646525979042,
            0.009287706576287746,
            -0.0022224807180464268,
            -0.2878251075744629,
            -0.009284607134759426,
            -0.0011110726045444608,
            -0.002099717501550913,
            0.2367279827594757,
            0.001144657377153635,
            -0.002893065335229039,
            -0.008904711343348026,
            -0.001338912290520966,
            0.0014822529628872871,
            -0.00890730693936348,
            0.08409111946821213,
            0.0621984526515007,
            0.001010574633255601,
            -0.0011180323781445622,
            0.24437575042247772,
            -0.3134208917617798,
            0.01922953501343727,
            0.04846474900841713,
            0.0030553825199604034,
            0.004573822021484375,
            -0.0011486976873129606,
            -0.0070924460887908936,
            -0.024264074862003326,
            0.15102194249629974,
            0.34125223755836487,
            0.006709348410367966,
            0.001556297647766769,
            -0.005497043952345848,
            -0.009931943379342556,
            -0.09834076464176178,
            -0.3345394432544708,
            -0.025412792339920998,
            0.06503155082464218,
            0.001699612126685679,
            -0.005040464457124472,
            -0.002192101441323757,
            0.0022062587086111307,
            0.15851077437400818,
            0.002117026597261429,
            -0.03962433338165283,
            0.006233291234821081,
            -0.0020606573671102524,
            -0.005166631191968918,
            -0.00024426906020380557,
            -0.0021844522561877966,
            0.0005977805121801794,
            -0.005074293352663517,
            -0.19855377078056335,
            0.004634152632206678
        ],
        [
            0.002810483332723379,
            0.15441246330738068,
            -0.032837335020303726,
            -0.005448250100016594,
            0.07901600003242493,
            0.0014829977881163359,
            0.00400110287591815,
            0.0005425523850135505,
            0.15891169011592865,
            -0.19260942935943604,
            -0.035955749452114105,
            0.00829162634909153,
            -0.0040157390758395195,
            -0.00651461211964488,
            -0.17738588154315948,
            -0.008912503719329834,
            -0.006913157645612955,
            0.015201134607195854,
            -0.19058901071548462,
            0.04314591735601425,
            -0.002543323440477252,
            0.002504857489839196,
            0.0288674496114254,
            -0.004383995197713375,
            -0.005517431069165468,
            -0.00035856201429851353,
            0.01635652966797352,
            0.007843545638024807,
            -0.4449159502983093,
            -0.0048174671828746796,
            -0.0693833976984024,
            -0.08700092881917953,
            -0.4462060332298279,
            -0.0018455665558576584,
            -0.007532627787441015,
            0.18586227297782898,
            -0.003980299457907677,
            -0.0063847568817436695,
            0.5887376070022583,
            0.0026211142539978027,
            -0.05863107740879059,
            0.006960486993193626,
            -0.00262502976693213,
            -0.003783989464864135,
            -0.013478316366672516,
            -0.002360891317948699,
            0.002404383849352598,
            -0.1771163046360016,
            -0.007844443432986736,
            0.002718172501772642,
            0.3503851592540741,
            0.007306206040084362,
            0.0031997510232031345,
            0.002097513061016798,
            0.026541052386164665,
            -0.0031192644964903593,
            0.0025076442398130894,
            0.006398627534508705,
            0.007490045856684446,
            -0.0027390073519200087,
            -0.1382593959569931,
            -0.027411293238401413,
            0.056890375912189484,
            -0.0029922074172645807,
            0.0008805777179077268,
            -0.06483251601457596,
            -0.43021151423454285,
            -0.011234263889491558,
            0.0887642651796341,
            -0.0042256517335772514,
            -0.10262559354305267,
            0.002848769770935178,
            0.006272362545132637,
            -0.1965053677558899,
            0.1305641233921051,
            0.0220036543905735,
            -0.008390949107706547,
            -0.0011613351525738835,
            0.007924409583210945,
            0.007403688505291939,
            0.19797147810459137,
            0.35954299569129944,
            -0.20179633796215057,
            0.2189711183309555,
            -0.0013642437988892198,
            0.008767233230173588,
            0.0037966971285641193,
            -0.007776539772748947,
            -0.14227348566055298,
            -0.0021991648245602846,
            -0.02091079205274582,
            -0.009332286193966866,
            0.0019885478541254997,
            0.006419183686375618,
            0.006977878510951996,
            0.0027976413257420063,
            -0.006215029861778021,
            0.0015699716750532389,
            -0.1532427966594696,
            0.1989896148443222
        ],
        [
            -0.0009147471864707768,
            -0.01868611015379429,
            0.1097794771194458,
            0.0013384389458224177,
            -0.23116061091423035,
            -0.0006530816899612546,
            -0.009155146777629852,
            -0.0026081029791384935,
            0.022738421335816383,
            -0.00677783228456974,
            -0.26804637908935547,
            -0.009108956903219223,
            0.007154849357903004,
            0.0022491489071398973,
            -0.005433095619082451,
            0.013139341026544571,
            0.0026208737399429083,
            -0.016288653016090393,
            0.1367545872926712,
            -0.0700790137052536,
            0.0006583310314454138,
            -0.005905505269765854,
            0.24568705260753632,
            0.0047995829954743385,
            0.0015123080229386687,
            0.22064824402332306,
            -0.020676318556070328,
            -0.006641717161983252,
            -0.15629808604717255,
            0.006763759534806013,
            -0.0024750675074756145,
            0.00171067810151726,
            -0.17345906794071198,
            0.0007813826086930931,
            0.002665543230250478,
            -0.4001232385635376,
            0.0010658650426194072,
            0.008159339427947998,
            -0.42495861649513245,
            -0.0006256620981730521,
            0.002512031700462103,
            -0.011824515648186207,
            -0.00010574486805126071,
            0.0011013635667040944,
            0.021107355132699013,
            0.0056760977022349834,
            -0.002529940800741315,
            -0.006011849269270897,
            0.008663466200232506,
            -0.000927952874917537,
            -0.017692292109131813,
            -0.010693758726119995,
            -0.0001602748379809782,
            -0.0008463783306069672,
            -0.06962835788726807,
            0.00014487418229691684,
            0.000780081725679338,
            -0.0084678390994668,
            -0.0027673107106238604,
            0.00039208575617522,
            -0.002065700013190508,
            -0.13572390377521515,
            0.1006976068019867,
            3.373603249201551e-05,
            0.0008175778202712536,
            -0.2044668197631836,
            -0.3236939609050751,
            0.016944006085395813,
            0.2721804678440094,
            0.001147703267633915,
            0.004296381026506424,
            -0.00012264642282389104,
            -0.01236413512378931,
            -0.006055715028196573,
            0.22733399271965027,
            0.1249740719795227,
            0.004807090386748314,
            0.0005061037954874337,
            -0.004014217760413885,
            -0.004796862602233887,
            -0.04182080924510956,
            -0.08147197961807251,
            -0.005929173901677132,
            -0.23210757970809937,
            0.0006006131879985332,
            -0.009358040057122707,
            -0.0011808301787823439,
            0.003202220657840371,
            0.18112696707248688,
            0.0008368102135136724,
            -0.09408159554004669,
            0.005795397330075502,
            -0.0008248056983575225,
            -0.010916529223322868,
            -0.0022122564259916544,
            -0.0009058567811734974,
            0.001887208316475153,
            -0.005909082479774952,
            -0.14594648778438568,
            0.006123482249677181
        ],
        [
            0.0019605739507824183,
            0.09630021452903748,
            0.2329968959093094,
            -0.001859369222074747,
            0.1559193879365921,
            0.001701137749478221,
            -0.008073716424405575,
            -0.001053523039445281,
            0.12288651615381241,
            -0.2282039374113083,
            -0.08882385492324829,
            -0.005821403115987778,
            0.005120543297380209,
            -0.0024876410607248545,
            -0.2158757746219635,
            0.010586376301944256,
            -0.0023973649367690086,
            -0.012242015451192856,
            -0.1707262396812439,
            -0.06447353214025497,
            -0.001817977987229824,
            -0.005705203395336866,
            -0.17297330498695374,
            0.003007909981533885,
            -0.0016693673096597195,
            -0.1704513132572174,
            -0.09204193204641342,
            0.001088984776288271,
            -0.08324263244867325,
            0.00464951666072011,
            -0.06742509454488754,
            -0.07858142256736755,
            -0.2820071280002594,
            -0.0019121792865917087,
            -0.001222382066771388,
            0.1714133471250534,
            -0.001828364678658545,
            0.005750943906605244,
            0.3234405517578125,
            0.0019463261123746634,
            -0.04804094880819321,
            -0.009391367435455322,
            -0.0025126920081675053,
            -0.00040295941289514303,
            0.016782399266958237,
            0.004274090752005577,
            -0.0017865533009171486,
            -0.2105042040348053,
            0.004876274149864912,
            0.0019956270698457956,
            0.5018615126609802,
            -0.007818621583282948,
            0.0018085199408233166,
            0.0020115470979362726,
            0.1673688441514969,
            -0.0017883393447846174,
            0.0018857340328395367,
            -0.006392931565642357,
            0.0018766042776405811,
            -0.0017498652450740337,
            -0.14049912989139557,
            -0.17965225875377655,
            0.05561662092804909,
            -0.0018572621047496796,
            -0.0008281203918159008,
            -0.06401240080595016,
            -0.3317023515701294,
            0.01353972963988781,
            -0.0673234760761261,
            -0.0008316661114804447,
            -0.09205057471990585,
            0.0017825361574068666,
            -0.010220364667475224,
            -0.2445322424173355,
            0.22671769559383392,
            -0.013906591571867466,
            -0.0009146815282292664,
            -0.0014607340563088655,
            0.0017224601469933987,
            -0.0005635693669319153,
            0.21228677034378052,
            -0.12640514969825745,
            -0.24655374884605408,
            0.04112658277153969,
            -0.0016134021570906043,
            -0.0040856353007256985,
            -0.0002833436010405421,
            -0.001715156831778586,
            0.04887824133038521,
            -0.0020649144425988197,
            -0.008845317177474499,
            -0.0003804476000368595,
            0.0019776583649218082,
            -0.008496581576764584,
            0.001262740814127028,
            0.001959466142579913,
            -0.0015133386477828026,
            -0.005427203606814146,
            -0.2588752806186676,
            0.2408456951379776
        ],
        [
            -0.0014871382154524326,
            -0.038521431386470795,
            0.037066034972667694,
            0.0016820150194689631,
            0.026052750647068024,
            -0.0007084452081471682,
            -0.010032067075371742,
            -0.0028772291261702776,
            -0.067355677485466,
            0.022324349731206894,
            -0.2720099687576294,
            -0.011345196515321732,
            0.006906876340508461,
            0.0031877830624580383,
            -0.004012948367744684,
            0.014202423393726349,
            0.003458792809396982,
            -0.018864700570702553,
            0.5063595175743103,
            -0.08786636590957642,
            0.00119355961214751,
            -0.0076789166778326035,
            -0.11754804104566574,
            0.0040387255139648914,
            0.002038612961769104,
            0.19771122932434082,
            -0.3279731869697571,
            -0.006029128562659025,
            -0.3101222813129425,
            0.009490459226071835,
            -0.033822983503341675,
            -0.015828000381588936,
            -0.10483893752098083,
            0.0008727777749300003,
            0.0021408579777926207,
            -0.40206706523895264,
            0.0021255069877952337,
            0.01003335416316986,
            -0.0014976009260863066,
            -0.0015031950315460563,
            -0.0019190978491678834,
            -0.011730708181858063,
            -0.0013160293456166983,
            0.0024758221115916967,
            0.024764759466052055,
            0.004707513377070427,
            -0.0031415331177413464,
            0.00594934169203043,
            0.010102028027176857,
            -0.0014025672571733594,
            0.01943310536444187,
            -0.011821944266557693,
            -0.0014972499338909984,
            -0.0010014863219112158,
            -0.11366795748472214,
            0.0015029058558866382,
            -0.00032050436129793525,
            -0.009983657859265804,
            -0.002736750990152359,
            0.0016049559926614165,
            0.00017702097829896957,
            -0.15870416164398193,
            -0.006923015229403973,
            0.0013733792584389448,
            0.00014550030755344778,
            0.1869743913412094,
            0.012056699022650719,
            0.02059141732752323,
            -0.09782300144433975,
            0.001844158978201449,
            -0.004461525473743677,
            -0.00146990898065269,
            -0.012425112538039684,
            0.011403108015656471,
            0.09399111568927765,
            -0.08382076025009155,
            0.005842213518917561,
            0.000563178036827594,
            -0.0047682831063866615,
            -0.007249646820127964,
            -0.20164629817008972,
            0.01644308865070343,
            0.010607477277517319,
            0.21407899260520935,
            0.0006537889130413532,
            -0.009450512938201427,
            -0.0017121274722740054,
            0.003354204585775733,
            0.2108834981918335,
            0.00105551746673882,
            0.040061160922050476,
            0.0064749643206596375,
            -0.000940226367674768,
            -0.01044952031224966,
            -0.0018760883249342442,
            -0.001484018168412149,
            0.001831370173022151,
            -0.00662646209821105,
            -0.28857389092445374,
            -0.02841653861105442
        ],
        [
            0.0019193383632227778,
            0.11108129471540451,
            0.2725503444671631,
            -0.0019668235909193754,
            0.31684669852256775,
            0.0021665161475539207,
            -0.011621658690273762,
            -0.001708517549559474,
            0.07167406380176544,
            -0.16078804433345795,
            0.05788470432162285,
            -0.009526224806904793,
            0.008088566362857819,
            -0.0014127247268334031,
            -0.15395943820476532,
            0.016402168199419975,
            -0.001124915317632258,
            -0.020110594108700752,
            -0.3265818953514099,
            -0.10173990577459335,
            -0.001788452616892755,
            -0.007485720328986645,
            -0.20703791081905365,
            0.005087384954094887,
            -0.0016052568098530173,
            -0.0529688335955143,
            -0.07182695716619492,
            0.0029960733372718096,
            -0.33293965458869934,
            0.006277961656451225,
            -0.07354343682527542,
            -0.0721791610121727,
            -0.26693177223205566,
            -0.002199804177507758,
            -0.0008711827103979886,
            0.034929919987916946,
            -0.0018086350755766034,
            0.009026392363011837,
            0.3589305579662323,
            0.00194090127479285,
            -0.04798193275928497,
            -0.014794480055570602,
            -0.003396522719413042,
            0.00021278110216371715,
            0.025918960571289062,
            0.006489972583949566,
            -0.002996155060827732,
            -0.14843425154685974,
            0.00848762970417738,
            0.0019989830907434225,
            0.5036299228668213,
            -0.011728608049452305,
            0.0018683710368350148,
            0.0022035709116607904,
            -0.0171999242156744,
            -0.0018569924868643284,
            0.0022789104841649532,
            -0.009527263231575489,
            0.0007850786787457764,
            -0.0017160095740109682,
            -0.10674197971820831,
            -0.1698600947856903,
            0.08101322501897812,
            -0.0019533606246113777,
            -0.0010911112185567617,
            0.07735905051231384,
            -0.2798333466053009,
            0.02105052024126053,
            -0.044565290212631226,
            -0.0002162934688385576,
            -0.07738208770751953,
            0.0018508807988837361,
            -0.015223388560116291,
            -0.16918666660785675,
            0.2712259590625763,
            0.11821070313453674,
            0.0010566257406026125,
            -0.002035394310951233,
            0.00018166076915804297,
            -0.0004792289691977203,
            0.07593274861574173,
            -0.13614027202129364,
            -0.17055881023406982,
            -0.056115154176950455,
            -0.0021266371477395296,
            -0.007574607618153095,
            -0.0012831519125029445,
            -0.00033866509329527617,
            0.3217782974243164,
            -0.0022431910037994385,
            0.07714027166366577,
            0.0017646854976192117,
            0.0022034915164113045,
            -0.013413432985544205,
            0.00124432984739542,
            0.0019197689834982157,
            -0.0016144857509061694,
            -0.00811163242906332,
            -0.30853623151779175,
            0.17160461843013763
        ],
        [
            0.0005781176732853055,
            0.000350526359397918,
            -0.19253139197826385,
            0.002191844629123807,
            0.06624851375818253,
            0.0004654607328120619,
            -0.014242267236113548,
            -0.005160599481314421,
            -0.082619309425354,
            0.008187191560864449,
            -0.3598557710647583,
            -0.01526157557964325,
            0.012138760648667812,
            0.002695609349757433,
            0.002426387742161751,
            0.02094770036637783,
            0.0033200171310454607,
            -0.02675185725092888,
            -0.037059981375932693,
            -0.12497001141309738,
            -0.0008875459316186607,
            -0.00884993001818657,
            -0.148623988032341,
            0.0077078999020159245,
            0.002402945887297392,
            0.1118517816066742,
            -0.3748321235179901,
            -0.012956954538822174,
            -0.0787007063627243,
            0.011153049767017365,
            -0.03591306135058403,
            -0.016692470759153366,
            -0.2661992311477661,
            -0.0004819117020815611,
            0.0049200402572751045,
            0.03154240921139717,
            0.0008585831383243203,
            0.013269437476992607,
            -0.3922758996486664,
            0.0009550552349537611,
            0.0018496077973395586,
            -0.018744785338640213,
            0.0003355786029715091,
            0.0009102090261876583,
            0.034346215426921844,
            0.00902694370597601,
            -0.00403878977522254,
            0.005172546487301588,
            0.014172417111694813,
            0.0005593845853582025,
            0.36169368028640747,
            -0.017414238303899765,
            0.0007401470793411136,
            0.0004994034534320235,
            0.14249016344547272,
            -0.0008224793709814548,
            0.002364525804296136,
            -0.013888469897210598,
            -0.004478941205888987,
            -0.0009348269668407738,
            0.003963810857385397,
            -0.2650468647480011,
            0.06443625688552856,
            -0.0010042854119092226,
            0.0026627422776073217,
            0.02827894128859043,
            0.1439921259880066,
            0.027412302792072296,
            0.21707400679588318,
            0.0025382349267601967,
            0.0007521072984673083,
            0.0009579274337738752,
            -0.019885053858160973,
            0.009153947234153748,
            0.07331617921590805,
            0.15191702544689178,
            0.007437422871589661,
            -0.00046306612784974277,
            -0.0061238654889166355,
            -0.009305816143751144,
            -0.44588911533355713,
            0.07821261137723923,
            0.010117310099303722,
            -0.13037392497062683,
            -0.00046658702194690704,
            -0.016438378021121025,
            -0.0013521641958504915,
            0.005041389260441065,
            0.3377232253551483,
            -0.0006023771711625159,
            -0.1065312922000885,
            0.009439803659915924,
            0.0004956670454703271,
            -0.01744932308793068,
            -0.004177811089903116,
            0.0005825244006700814,
            0.0034203161485493183,
            -0.009462558664381504,
            -0.3303629159927368,
            -0.007520570419728756
        ],
        [
            0.0015560960164293647,
            -0.006192173808813095,
            0.09930768609046936,
            -0.0008624623296782374,
            0.5355727076530457,
            0.0009660581708885729,
            -0.002330188173800707,
            0.000958781223744154,
            -0.010323840193450451,
            -0.049465298652648926,
            0.029439246281981468,
            -0.0016323741292580962,
            0.0014802897348999977,
            -0.0013571237213909626,
            -0.053576912730932236,
            0.003972477279603481,
            -0.0013543162494897842,
            -0.005364146549254656,
            -0.3958410918712616,
            -0.021568307653069496,
            -0.0012433757074177265,
            -0.0009405097807757556,
            -0.05022412911057472,
            0.0015460402937605977,
            -0.0008002746617421508,
            0.004003046080470085,
            0.05665554851293564,
            0.00010191745968768373,
            0.06790077686309814,
            -2.1054722310509533e-05,
            -0.009941885247826576,
            -0.018129631876945496,
            -0.12504002451896667,
            -0.0011693346314132214,
            -0.0007901566568762064,
            -0.1401110589504242,
            -0.0010764884063974023,
            0.0015909082721918821,
            0.2209523469209671,
            0.0014485205756500363,
            -0.014933925122022629,
            -0.003110420424491167,
            0.00034896808210760355,
            -0.00037228805013000965,
            0.004980802070349455,
            0.001646950258873403,
            -0.00052583625074476,
            -0.04566716402769089,
            0.0015918271383270621,
            0.0015737471403554082,
            0.08820223808288574,
            -0.002544786548241973,
            0.000968462263699621,
            0.0013117686612531543,
            -0.04677367955446243,
            -0.0009696220513433218,
            0.0007985825650393963,
            -0.0021271579898893833,
            0.0012643090449273586,
            -0.0011443332768976688,
            -0.03652707114815712,
            -0.07858124375343323,
            0.0983777716755867,
            -0.0009938335279002786,
            -0.0011627394706010818,
            0.00398859241977334,
            -0.07135277986526489,
            0.004026900511234999,
            0.12021273374557495,
            -0.0003815900126937777,
            -0.025424808263778687,
            0.0009890625951811671,
            -0.003451261203736067,
            -0.0509895421564579,
            0.4687618017196655,
            0.008914048783481121,
            -0.0009137847227975726,
            -0.0007879467448219657,
            0.0012299034278839827,
            -0.00014142457803245634,
            -0.12683285772800446,
            0.03966663032770157,
            -0.05357762426137924,
            -0.01648484542965889,
            -0.0008982019498944283,
            -0.0010477363830432296,
            -0.0005018498050048947,
            -0.0012432719813659787,
            0.07205561548471451,
            -0.0014277503360062838,
            0.033632878214120865,
            -0.0009409136255271733,
            0.0012583562638610601,
            -0.0028113890439271927,
            0.0006268781144171953,
            0.0015472626546397805,
            -0.0006800833507440984,
            -0.0017576643731445074,
            -0.04204048588871956,
            0.05273093283176422
        ],
        [
            0.0009960925672203302,
            0.016297483816742897,
            -0.09156287461519241,
            0.0009730401216074824,
            0.29713669419288635,
            0.000822393165435642,
            -0.005482364911586046,
            -0.002718813717365265,
            -0.08271607011556625,
            -0.009374775923788548,
            -0.19228993356227875,
            -0.003838519798591733,
            0.006481905002146959,
            -0.0005507941823452711,
            0.004220376722514629,
            0.007870190776884556,
            -0.00010403212218079716,
            -0.007955357432365417,
            -0.018015310168266296,
            -0.04175318032503128,
            -0.0010284720920026302,
            -0.0015327802393585443,
            -0.15775837004184723,
            0.004137944430112839,
            0.0009013376547954977,
            0.07158708572387695,
            -0.23924046754837036,
            -0.006372865755110979,
            0.04337034747004509,
            0.001471470925025642,
            -0.04474923759698868,
            -0.027738336473703384,
            -0.17412255704402924,
            -0.0008785348036326468,
            0.0029678645078092813,
            0.04517273232340813,
            -0.00021291121083777398,
            0.0033776918426156044,
            -0.356574147939682,
            0.0011101082200184464,
            -0.009493091143667698,
            -0.0085934242233634,
            0.0007745331386104226,
            -0.0018621523631736636,
            0.011080974712967873,
            0.005460057873278856,
            -0.0008835475309751928,
            -0.0009505765046924353,
            0.004370503127574921,
            0.000985346850939095,
            0.14755089581012726,
            -0.006444926373660564,
            0.0009034815011546016,
            0.0009139017201960087,
            0.05514901876449585,
            -0.0009599262266419828,
            0.0030841375701129436,
            -0.004333576653152704,
            -0.002183167962357402,
            -0.0010714031523093581,
            -0.008532987907528877,
            -0.26831528544425964,
            -0.012798062525689602,
            -0.0010080380598083138,
            0.00289250910282135,
            -0.03566531091928482,
            0.29730868339538574,
            0.007769142277538776,
            0.11177190393209457,
            -0.00010756526899058372,
            -0.014152784831821918,
            0.001017844770103693,
            -0.00919217336922884,
            0.004363740794360638,
            -0.20286118984222412,
            -0.08400126546621323,
            0.00150514196138829,
            -0.0007669403566978872,
            -0.0013106698170304298,
            -0.0009403959265910089,
            -0.2846902310848236,
            0.1441144049167633,
            0.006823120638728142,
            -0.11251094937324524,
            -0.0008040400571189821,
            -0.0078510120511055,
            0.0006183432997204363,
            0.002130893524736166,
            0.13275082409381866,
            -0.0009637660696171224,
            -0.01578771509230137,
            0.003062502946704626,
            0.0009017427801154554,
            -0.008508265018463135,
            -0.002425176091492176,
            0.0009956425055861473,
            0.0018439224222674966,
            -0.003680676920339465,
            -0.106446273624897,
            0.01389266550540924
        ],
        [
            -0.0015485722105950117,
            -0.1528746485710144,
            0.14590498805046082,
            0.0012684109387919307,
            -0.33253881335258484,
            -0.0018794916104525328,
            0.0022086298558861017,
            0.0035651528742164373,
            -0.03915420547127724,
            -0.08706395328044891,
            -0.11272210627794266,
            -0.002050931565463543,
            -0.004159208387136459,
            0.001993523444980383,
            -0.08617980778217316,
            -0.0002452686312608421,
            0.0016797863645479083,
            -0.004513455554842949,
            -0.2977442741394043,
            0.00619382131844759,
            0.0010869947727769613,
            -0.00017739078612066805,
            -0.17553377151489258,
            -4.5647891965927556e-05,
            0.0012765588471665978,
            -0.0615309439599514,
            -0.131565123796463,
            -0.0039533632807433605,
            0.49197202920913696,
            0.0013006791705265641,
            0.0400402769446373,
            0.012990307062864304,
            0.12522000074386597,
            0.0020077547524124384,
            0.0009365744772367179,
            0.11319142580032349,
            0.000729961262550205,
            0.001284077879972756,
            -0.26674342155456543,
            -0.0007025353261269629,
            0.012176746502518654,
            0.003057613968849182,
            0.0034876472782343626,
            0.0027368548326194286,
            -0.0011465223506093025,
            -0.002757961628958583,
            -0.0005618268623948097,
            -0.0755082443356514,
            0.00048451669863425195,
            -0.001688643591478467,
            -0.041029445827007294,
            0.00078247778583318,
            -0.0005692161503247917,
            -0.0020504065323621035,
            0.0890972763299942,
            0.0005995527026243508,
            -0.003276917850598693,
            3.0967181373853236e-05,
            -0.00014878531510476023,
            0.0003958180022891611,
            -0.03155992180109024,
            -0.20592261850833893,
            0.15549159049987793,
            0.0004984480328857899,
            -0.0038737196009606123,
            -0.06826560199260712,
            0.2810705006122589,
            0.0003278514195699245,
            -0.08051927387714386,
            0.0023747896775603294,
            -0.004171067848801613,
            -0.0004555073392111808,
            0.0034470290411263704,
            -0.10092632472515106,
            -0.22039471566677094,
            -0.060650814324617386,
            0.0016832433175295591,
            0.001709719654172659,
            -0.0014400500804185867,
            -0.0038142334669828415,
            0.027097472921013832,
            -0.27738454937934875,
            -0.10061528533697128,
            -0.042658329010009766,
            0.001821667654439807,
            0.0031477301381528378,
            -0.0025331848300993443,
            0.00018890788487624377,
            -0.15998129546642303,
            0.0019422395853325725,
            0.07854198664426804,
            0.0008870542515069246,
            -0.002047064248472452,
            0.00325510511174798,
            -0.0014453510520979762,
            -0.0015227542025968432,
            0.00140274316072464,
            0.002111063338816166,
            0.07444603741168976,
            0.09780079126358032
        ],
        [
            9.74639187916182e-05,
            -0.0063338857144117355,
            -0.14754047989845276,
            0.0011295531876385212,
            0.3161315321922302,
            0.00021608213137369603,
            -9.279134246753529e-05,
            -0.0008457634830847383,
            -0.09890654683113098,
            0.01656320132315159,
            -0.04448354244232178,
            0.0016378479776903987,
            0.001915919710882008,
            -0.0010412221308797598,
            0.00037628223071806133,
            0.000105920153146144,
            -0.000823560229036957,
            0.001987743191421032,
            -0.05928465351462364,
            0.0033078647684305906,
            -4.565077688312158e-05,
            0.0016817775322124362,
            0.18268656730651855,
            0.001079879468306899,
            0.0010014136787503958,
            0.0038883183151483536,
            0.031894583255052567,
            -0.0024697603657841682,
            -0.02346133626997471,
            -0.002339230151847005,
            -0.03701760247349739,
            -0.022001145407557487,
            -0.08207273483276367,
            -0.0002305515226908028,
            0.001697310246527195,
            0.09840155392885208,
            0.0005629301303997636,
            -0.0014694229466840625,
            -0.10706967860460281,
            -7.26913713151589e-05,
            -0.007709149736911058,
            -0.0012735670898109674,
            0.0006566110532730818,
            -0.0019393712282180786,
            -0.0017173023661598563,
            0.001852291519753635,
            0.0006620111525990069,
            0.007895005866885185,
            -0.000805902760475874,
            0.00013817285071127117,
            -0.11822230368852615,
            0.00010458115866640583,
            -0.0004807044751942158,
            0.00022566909319721162,
            -0.017187917605042458,
            0.00045649547246284783,
            0.0018946435302495956,
            0.0008597018895670772,
            -0.0010100044310092926,
            0.0002710229891818017,
            -0.0005707255331799388,
            0.08385738730430603,
            -0.06895006448030472,
            0.0004618625098373741,
            0.001965552568435669,
            -0.10391650348901749,
            -0.09797997772693634,
            -0.0024540412705391645,
            0.2429792284965515,
            -0.0010401225881651044,
            -0.010879810899496078,
            -0.0004293849633540958,
            -0.0015037746634334326,
            0.01286008395254612,
            -0.3860774636268616,
            -0.11870136857032776,
            -0.0007218209793791175,
            -0.0001981189998332411,
            0.0004201920819468796,
            0.001974089303985238,
            -0.039245396852493286,
            -0.08645370602607727,
            0.012881355360150337,
            -0.32099372148513794,
            -0.00021052552619948983,
            -0.0017550084739923477,
            0.0010970105649903417,
            0.0007474247831851244,
            -0.02675274945795536,
            -0.0002146352344425395,
            0.03737034276127815,
            8.92307361937128e-05,
            0.00023602422152180225,
            -0.0016342459712177515,
            -0.001604988006874919,
            9.231978765456006e-05,
            0.0014614383690059185,
            -5.585539838648401e-05,
            -0.01214631274342537,
            -0.019388150423765182
        ],
        [
            0.0008531330968253314,
            -0.1859172284603119,
            -0.15966428816318512,
            0.0003291839675512165,
            -0.17391636967658997,
            0.0003402263391762972,
            7.342942262766883e-05,
            0.0023043311666697264,
            -0.0887371376156807,
            0.007992907427251339,
            -0.04524214193224907,
            -0.002625108463689685,
            -0.0005526462919078767,
            0.0005814927280880511,
            0.008573961444199085,
            0.00220308150164783,
            0.0005222561885602772,
            -0.006436735391616821,
            -0.12144239991903305,
            -0.006972290109843016,
            -0.0007627081940881908,
            -0.0005674452404491603,
            -0.11431455612182617,
            0.0013274622615426779,
            0.000362902763299644,
            0.02948935702443123,
            0.09560664743185043,
            -0.0028023028280586004,
            0.6138119697570801,
            0.0014151163632050157,
            0.028581025078892708,
            0.01905740611255169,
            0.14006909728050232,
            -0.0003956858708988875,
            0.0007579324883408844,
            0.172891765832901,
            -0.0005058877868577838,
            0.0018849947955459356,
            -0.16344691812992096,
            0.001209693611599505,
            0.010269040241837502,
            -0.00043848270433954895,
            0.0012627063551917672,
            0.001332238083705306,
            0.002546129049733281,
            -0.0006313290796242654,
            -0.0007923750090412796,
            0.011996088549494743,
            0.0013421096373349428,
            0.00077488599345088,
            -0.37022510170936584,
            -0.0012275079498067498,
            0.0005082327406853437,
            0.0004570150631479919,
            0.29604119062423706,
            -0.0005170510266907513,
            -0.0011843766551464796,
            -0.0012584731448441744,
            -0.0003857242118101567,
            -0.0008991551003418863,
            0.010289762169122696,
            -0.21689419448375702,
            0.21048234403133392,
            -0.0005780121427960694,
            -0.0027354087214916945,
            -0.07126542925834656,
            0.2703750729560852,
            0.002649475121870637,
            0.21060489118099213,
            0.0019420812604948878,
            0.01154431514441967,
            0.0006599129410460591,
            -7.275598181877285e-05,
            0.009451163001358509,
            -0.05281916260719299,
            -0.3859499394893646,
            0.0009389265906065702,
            -0.00029903423273935914,
            -0.0006646355031989515,
            -0.002351032570004463,
            -0.20823846757411957,
            -0.1535378098487854,
            0.009171887300908566,
            0.2955161929130554,
            -0.00032361914054490626,
            -0.000493265746627003,
            -0.0020867488346993923,
            0.0004242952272761613,
            -0.03387681767344475,
            -0.0005897756200283766,
            0.1558743417263031,
            0.0008517482201568782,
            0.00042792019667103887,
            -0.00023443877580575645,
            -0.0008334915619343519,
            0.000861449574586004,
            0.0005774297169409692,
            0.0005435029743239284,
            0.05854102224111557,
            -0.006363753695040941
        ],
        [
            -0.0014372093137353659,
            0.05935189872980118,
            -0.10855010896921158,
            -0.002150830812752247,
            0.2117731124162674,
            -0.001247494132257998,
            0.0036364104598760605,
            0.0005128061166033149,
            0.007609109859913588,
            0.01117855403572321,
            -0.04031369462609291,
            0.004029758274555206,
            -0.00419652322307229,
            0.0004490568826440722,
            0.00957160908728838,
            -0.006469272542744875,
            0.00022340723080560565,
            0.008283636532723904,
            -0.0086893942207098,
            0.024484694004058838,
            0.0012457973789423704,
            0.0015984034398570657,
            0.20881986618041992,
            -0.002989391563460231,
            -0.0020794179290533066,
            -0.01071974728256464,
            0.33068761229515076,
            0.004272742662578821,
            0.11122139543294907,
            -0.002154359593987465,
            -0.026054443791508675,
            -0.022366095334291458,
            0.010812411084771156,
            0.0013866672525182366,
            -0.0035907034762203693,
            0.36266517639160156,
            -0.000567900890018791,
            -0.0032941021490842104,
            0.01838192716240883,
            -0.0012113741831853986,
            -0.014762548729777336,
            0.0055107432417571545,
            0.000184729287866503,
            0.0003853219677694142,
            -0.008510865271091461,
            -0.002615272765979171,
            0.001010251697152853,
            0.008345147594809532,
            -0.0033324556425213814,
            -0.0014901866670697927,
            -0.028615839779376984,
            0.004659709054976702,
            0.0005123948212713003,
            -0.0014550528721883893,
            -0.28825289011001587,
            -0.0004308908246457577,
            -0.001286651473492384,
            0.0035138302482664585,
            0.0020553614012897015,
            0.00042247798410244286,
            -0.00850877445191145,
            0.11473158746957779,
            -0.1112716943025589,
            -0.00038785484503023326,
            -0.000155849993461743,
            -0.14738692343235016,
            0.006653698161244392,
            -0.0064042964950203896,
            0.16975709795951843,
            -0.0009633175213821232,
            -0.019344590604305267,
            0.00022666466247756034,
            0.005650898441672325,
            0.016095390543341637,
            -0.23071976006031036,
            -0.17328757047653198,
            -0.0009191887802444398,
            0.0010965049732476473,
            0.0006526599172502756,
            0.0016274639638140798,
            0.2935255467891693,
            0.05761601775884628,
            0.01644974760711193,
            -0.2245618999004364,
            0.0011943483259528875,
            0.005335020832717419,
            0.0008089076145552099,
            -0.0017985348822548985,
            -0.038403697311878204,
            0.0015263629611581564,
            0.1282881498336792,
            -0.001909049111418426,
            -0.0014411156298592687,
            0.005178507883101702,
            0.0035225991159677505,
            -0.0014282071497291327,
            -0.002946986351162195,
            0.002265484072268009,
            0.06357187777757645,
            -0.01387837901711464
        ],
        [
            0.0004636865633074194,
            -0.07519930601119995,
            0.18853864073753357,
            -0.0010176736395806074,
            -0.1366199105978012,
            -0.0001460723578929901,
            -0.001866735052317381,
            -1.654920015425887e-05,
            -0.03751654550433159,
            -0.045461658388376236,
            -0.029831111431121826,
            -0.004454450216144323,
            0.0003573227149900049,
            0.0009843572042882442,
            -0.017295783385634422,
            0.0036035131197422743,
            0.0008327536634169519,
            -0.007046381011605263,
            0.03633248433470726,
            -0.01902863010764122,
            -0.0006028000498190522,
            -0.0025090479757636786,
            0.14812609553337097,
            0.0006636528996750712,
            -0.0009323345730081201,
            0.012528568506240845,
            0.03008740022778511,
            -0.003646734869107604,
            0.11103982478380203,
            0.004021194763481617,
            0.021210037171840668,
            0.009276146069169044,
            0.08897211402654648,
            9.472430974710733e-05,
            -0.0006841096910648048,
            -0.00802860502153635,
            -0.0011363276280462742,
            0.0036048570182174444,
            -0.06026986986398697,
            0.0009027920896187425,
            0.005882803350687027,
            -0.0017668630462139845,
            0.0003006302285939455,
            0.0015335377538576722,
            0.006796794943511486,
            -0.00011893337068613619,
            -0.0012309232261031866,
            -0.026870813220739365,
            0.00311300135217607,
            0.00035966583527624607,
            0.024752799421548843,
            -0.0032414894085377455,
            0.0014539744006469846,
            -1.9572917153709568e-05,
            -0.22880811989307404,
            -0.0014283895725384355,
            -0.0010479893535375595,
            -0.003118278458714485,
            0.0006737678777426481,
            -0.0012043163878843188,
            -0.012404358014464378,
            0.17536529898643494,
            0.14792713522911072,
            -0.0014822139637544751,
            -0.0010753178503364325,
            -0.007242234889417887,
            -0.041087035089731216,
            0.006394629832357168,
            0.04369031637907028,
            0.001851563691161573,
            0.002016702201217413,
            0.001417831750586629,
            -0.0020119226537644863,
            -0.03386980667710304,
            -0.1839706301689148,
            0.15447081625461578,
            0.0017351788701489568,
            0.00015913206152617931,
            -0.0012041873997077346,
            -0.004336359910666943,
            -0.018019523471593857,
            -0.08263100683689117,
            -0.03056343086063862,
            0.0796184241771698,
            0.00015312722825910896,
            -0.0016457538586109877,
            -0.0011206198250874877,
            -0.0003917271678801626,
            0.0023712702095508575,
            -9.638717892812565e-05,
            0.10489920526742935,
            0.0014235073467716575,
            -6.201466749189422e-05,
            -0.0013423949712887406,
            0.0007120860973373055,
            0.0004736087576020509,
            -0.0008479811949655414,
            -0.0013106908882036805,
            -0.0044934507459402084,
            0.05423242598772049
        ],
        [
            -0.002337623853236437,
            -0.005114660132676363,
            -0.06152590364217758,
            0.0002041305706370622,
            -0.14765046536922455,
            -0.0019921744242310524,
            0.001862283330410719,
            0.0008722030906938016,
            0.047428686171770096,
            -0.000932799419388175,
            -0.2670744061470032,
            -0.0005901282420381904,
            -0.003601528936997056,
            0.002768011996522546,
            -0.003755230223760009,
            -0.002704482525587082,
            0.0024853048380464315,
            0.00102418742608279,
            -0.23617585003376007,
            -0.00038244729512371123,
            0.001999835018068552,
            -0.0010153644252568483,
            0.36414146423339844,
            -0.002267511561512947,
            0.0003439938009250909,
            -0.00942093413323164,
            0.33948564529418945,
            0.0013743620365858078,
            0.07748078554868698,
            0.0022520378697663546,
            0.011461852118372917,
            0.0030242730863392353,
            0.036751020699739456,
            0.002179104834794998,
            -0.0012688952265307307,
            0.3349017798900604,
            0.0013451711274683475,
            0.0003962590708397329,
            0.006844860501587391,
            -0.0021054591052234173,
            0.002211592625826597,
            0.003965173382312059,
            0.0002497553650755435,
            0.002730380976572633,
            -0.0017314626602455974,
            -0.0031487178057432175,
            -0.00014752692368347198,
            -0.001825440675020218,
            -8.23928348836489e-05,
            -0.0023645772598683834,
            0.06524347513914108,
            0.0018612546846270561,
            -0.0012463951716199517,
            -0.0022749833296984434,
            -0.14791804552078247,
            0.0012995873112231493,
            -0.0031624999828636646,
            0.0006364717846736312,
            0.0002752915024757385,
            0.0016772286035120487,
            -0.001845765276812017,
            0.15766169130802155,
            -0.01872064173221588,
            0.001269363216124475,
            -0.0016622504917904735,
            -0.24805642664432526,
            -0.23158249258995056,
            -0.00012516290007624775,
            -0.22883419692516327,
            0.0009445779141969979,
            -0.0013368979562073946,
            -0.0013557205675169826,
            0.004192042630165815,
            -0.002427078317850828,
